Language model created by QuickLM on Wed Aug  2 08:56:43 EDT 2017
Copyright (c) 1996-2010 Carnegie Mellon University and Alexander I. Rudnicky

The model is in standard ARPA format, designed by Doug Paul while he was at MITRE.

The code that was used to produce this language model is available in Open Source.
Please visit http://www.speech.cs.cmu.edu/tools/ for more information

The (fixed) discount mass is 0.5. The backoffs are computed using the ratio method.
This model based on a corpus of 21 sentences and 37 words

\data\
ngram 1=37
ngram 2=58
ngram 3=44

\1-grams:
-0.9282 </s> -0.3010
-0.9282 <s> -0.2465
-2.2504 ALVIAN -0.2465
-2.2504 ANNA -0.2465
-2.2504 ARE -0.2936
-2.2504 CAN -0.2936
-2.2504 DEFINES -0.2936
-2.2504 FIND -0.2986
-1.7733 GUNADARMA -0.2465
-2.2504 HAI -0.2465
-2.2504 HELLO -0.2465
-2.2504 HELP -0.2986
-2.2504 HI -0.2465
-1.7733 IS -0.2936
-2.2504 JEFRI -0.2465
-2.2504 LINTONG -0.2986
-2.2504 ME -0.2465
-2.2504 MEET -0.2936
-2.2504 MISSMARGIANTI -0.2465
-2.2504 MISTERDENNIS -0.2465
-2.2504 MISTERERY -0.2465
-2.2504 MISTERMAULANA -0.2465
-2.2504 MISTERMUSA -0.2465
-2.2504 NAME -0.2465
-2.2504 NICE -0.2986
-1.7733 OF -0.2936
-2.2504 RECTOR -0.2936
-2.2504 RYUJI -0.2465
-2.2504 THANKS -0.2465
-2.2504 THANKYOU -0.2465
-1.9494 THE -0.2961
-2.2504 TO -0.2986
-2.2504 VISION -0.2936
-1.7733 WHAT -0.2912
-1.9494 WHO -0.2912
-1.7733 YOU -0.2437
-2.2504 YOUR -0.2986

\2-grams:
-1.6232 <s> ALVIAN 0.0000
-1.6232 <s> CAN 0.0000
-1.6232 <s> FIND 0.0000
-1.6232 <s> HAI 0.0000
-1.6232 <s> HELLO 0.0000
-1.6232 <s> HI 0.0000
-1.6232 <s> JEFRI 0.0000
-1.6232 <s> MISSMARGIANTI 0.0000
-1.6232 <s> MISTERDENNIS 0.0000
-1.6232 <s> MISTERERY 0.0000
-1.6232 <s> MISTERMAULANA 0.0000
-1.6232 <s> MISTERMUSA 0.0000
-1.6232 <s> NICE 0.0000
-1.6232 <s> RYUJI 0.0000
-1.6232 <s> THANKS 0.0000
-1.6232 <s> THANKYOU 0.0000
-1.1461 <s> WHAT 0.0000
-1.3222 <s> WHO 0.0000
-0.3010 ALVIAN </s> -0.3010
-0.3010 ANNA </s> -0.3010
-0.3010 ARE YOU -0.1249
-0.3010 CAN YOU -0.2218
-0.3010 DEFINES OF 0.0000
-0.3010 FIND LINTONG 0.0000
-0.3010 GUNADARMA </s> -0.3010
-0.3010 HAI </s> -0.3010
-0.3010 HELLO </s> -0.3010
-0.3010 HELP ME 0.0000
-0.3010 HI </s> -0.3010
-0.4771 IS THE 0.0000
-0.7782 IS YOUR 0.0000
-0.3010 JEFRI </s> -0.3010
-0.3010 LINTONG ANNA 0.0000
-0.3010 ME </s> -0.3010
-0.3010 MEET YOU -0.1249
-0.3010 MISSMARGIANTI </s> -0.3010
-0.3010 MISTERDENNIS </s> -0.3010
-0.3010 MISTERERY </s> -0.3010
-0.3010 MISTERMAULANA </s> -0.3010
-0.3010 MISTERMUSA </s> -0.3010
-0.3010 NAME </s> -0.3010
-0.3010 NICE TO 0.0000
-0.3010 OF GUNADARMA 0.0000
-0.3010 RECTOR OF 0.0000
-0.3010 RYUJI </s> -0.3010
-0.3010 THANKS </s> -0.3010
-0.3010 THANKYOU </s> -0.3010
-0.6021 THE RECTOR 0.0000
-0.6021 THE VISION 0.0000
-0.3010 TO MEET 0.0000
-0.3010 VISION OF 0.0000
-0.7782 WHAT DEFINES 0.0000
-0.4771 WHAT IS 0.0000
-0.6021 WHO ARE 0.0000
-0.6021 WHO IS -0.1249
-0.4771 YOU </s> -0.3010
-0.7782 YOU HELP 0.0000
-0.3010 YOUR NAME 0.0000

\3-grams:
-0.3010 <s> ALVIAN </s>
-0.3010 <s> CAN YOU
-0.3010 <s> FIND LINTONG
-0.3010 <s> HAI </s>
-0.3010 <s> HELLO </s>
-0.3010 <s> HI </s>
-0.3010 <s> JEFRI </s>
-0.3010 <s> MISSMARGIANTI </s>
-0.3010 <s> MISTERDENNIS </s>
-0.3010 <s> MISTERERY </s>
-0.3010 <s> MISTERMAULANA </s>
-0.3010 <s> MISTERMUSA </s>
-0.3010 <s> NICE TO
-0.3010 <s> RYUJI </s>
-0.3010 <s> THANKS </s>
-0.3010 <s> THANKYOU </s>
-0.7782 <s> WHAT DEFINES
-0.4771 <s> WHAT IS
-0.6021 <s> WHO ARE
-0.6021 <s> WHO IS
-0.3010 ARE YOU </s>
-0.3010 CAN YOU HELP
-0.3010 DEFINES OF GUNADARMA
-0.3010 FIND LINTONG ANNA
-0.3010 HELP ME </s>
-0.6021 IS THE RECTOR
-0.6021 IS THE VISION
-0.3010 IS YOUR NAME
-0.3010 LINTONG ANNA </s>
-0.3010 MEET YOU </s>
-0.3010 NICE TO MEET
-0.3010 OF GUNADARMA </s>
-0.3010 RECTOR OF GUNADARMA
-0.3010 THE RECTOR OF
-0.3010 THE VISION OF
-0.3010 TO MEET YOU
-0.3010 VISION OF GUNADARMA
-0.3010 WHAT DEFINES OF
-0.6021 WHAT IS THE
-0.6021 WHAT IS YOUR
-0.3010 WHO ARE YOU
-0.3010 WHO IS THE
-0.3010 YOU HELP ME
-0.3010 YOUR NAME </s>

\end\
